digraph Tree {
node [shape=box, style="filled, rounded", color="black", fontname="helvetica"] ;
edge [fontname="helvetica"] ;
0 [label="age <= 65.0\ngini = 0.593\nsamples = 9\nvalue = [5, 2, 2]\nclass = biryani", fillcolor="#f4c9aa"] ;
1 [label="gini = 0.0\nsamples = 1\nvalue = [0, 1, 0]\nclass = pakora", fillcolor="#39e581"] ;
0 -> 1 [labeldistance=2.5, labelangle=45, headlabel="True"] ;
2 [label="age <= 70.5\ngini = 0.531\nsamples = 8\nvalue = [5, 1, 2]\nclass = biryani", fillcolor="#f2c09c"] ;
0 -> 2 [labeldistance=2.5, labelangle=-45, headlabel="False"] ;
3 [label="gini = 0.0\nsamples = 2\nvalue = [2, 0, 0]\nclass = biryani", fillcolor="#e58139"] ;
2 -> 3 ;
4 [label="age <= 82.0\ngini = 0.611\nsamples = 6\nvalue = [3, 1, 2]\nclass = biryani", fillcolor="#f8e0ce"] ;
2 -> 4 ;
5 [label="age <= 79.0\ngini = 0.625\nsamples = 4\nvalue = [1, 1, 2]\nclass = samosa", fillcolor="#d5bdf6"] ;
4 -> 5 ;
6 [label="age <= 73.0\ngini = 0.444\nsamples = 3\nvalue = [1, 0, 2]\nclass = samosa", fillcolor="#c09cf2"] ;
5 -> 6 ;
7 [label="gini = 0.0\nsamples = 1\nvalue = [0, 0, 1]\nclass = samosa", fillcolor="#8139e5"] ;
6 -> 7 ;
8 [label="gender <= 0.5\ngini = 0.5\nsamples = 2\nvalue = [1, 0, 1]\nclass = biryani", fillcolor="#ffffff"] ;
6 -> 8 ;
9 [label="gini = 0.0\nsamples = 1\nvalue = [1, 0, 0]\nclass = biryani", fillcolor="#e58139"] ;
8 -> 9 ;
10 [label="gini = 0.0\nsamples = 1\nvalue = [0, 0, 1]\nclass = samosa", fillcolor="#8139e5"] ;
8 -> 10 ;
11 [label="gini = 0.0\nsamples = 1\nvalue = [0, 1, 0]\nclass = pakora", fillcolor="#39e581"] ;
5 -> 11 ;
12 [label="gini = 0.0\nsamples = 2\nvalue = [2, 0, 0]\nclass = biryani", fillcolor="#e58139"] ;
4 -> 12 ;
}